<?xml version="1.0"?>
<opencv_storage>
<cascade>
  <stageType>BOOST</stageType>
  <featureType>HAAR</featureType>
  <height>24</height>
  <width>24</width>
  <stageParams>
    <boostType>GAB</boostType>
    <minHitRate>9.9500000476837158e-01</minHitRate>
    <maxFalseAlarm>5.0000000000000000e-01</maxFalseAlarm>
    <weightTrimRate>9.4999999999999996e-01</weightTrimRate>
    <maxDepth>1</maxDepth>
    <maxWeakCount>100</maxWeakCount></stageParams>
  <featureParams>
    <maxCatCount>0</maxCatCount>
    <featSize>1</featSize>
    <mode>BASIC</mode></featureParams>
  <stageNum>10</stageNum>
  <stages>
    <!-- stage 0 -->
    <_>
      <maxWeakCount>2</maxWeakCount>
      <stageThreshold>8.3345770835876465e-02</stageThreshold>
      <weakClassifiers>
        <_>
          <internalNodes>
            0 -1 7 -6.3953488133847713e-03</internalNodes>
          <leafValues>
            1. -8.1818181276321411e-01</leafValues></_>
        <_>
          <internalNodes>
            0 -1 1 -3.2391186803579330e-02</internalNodes>
          <leafValues>
            9.0152758359909058e-01 -1.</leafValues></_></weakClassifiers></_>
    <!-- stage 1 -->
    <_>
      <maxWeakCount>2</maxWeakCount>
      <stageThreshold>1.5391765534877777e-01</stageThreshold>
      <weakClassifiers>
        <_>
          <internalNodes>
            0 -1 4 1.8112788675352931e-03</internalNodes>
          <leafValues>
            1. -8.1818181276321411e-01</leafValues></_>
        <_>
          <internalNodes>
            0 -1 11 1.3061477802693844e-03</internalNodes>
          <leafValues>
            1. -8.4608232975006104e-01</leafValues></_></weakClassifiers></_>
    <!-- stage 2 -->
    <_>
      <maxWeakCount>2</maxWeakCount>
      <stageThreshold>8.3345770835876465e-02</stageThreshold>
      <weakClassifiers>
        <_>
          <internalNodes>
            0 -1 10 3.5590716288425028e-04</internalNodes>
          <leafValues>
            1. -8.1818181276321411e-01</leafValues></_>
        <_>
          <internalNodes>
            0 -1 5 3.5420304629951715e-04</internalNodes>
          <leafValues>
            9.0152758359909058e-01 -1.</leafValues></_></weakClassifiers></_>
    <!-- stage 3 -->
    <_>
      <maxWeakCount>1</maxWeakCount>
      <stageThreshold>8.9473682641983032e-01</stageThreshold>
      <weakClassifiers>
        <_>
          <internalNodes>
            0 -1 9 -9.6474196761846542e-03</internalNodes>
          <leafValues>
            -1. 8.9473682641983032e-01</leafValues></_></weakClassifiers></_>
    <!-- stage 4 -->
    <_>
      <maxWeakCount>2</maxWeakCount>
      <stageThreshold>8.3345770835876465e-02</stageThreshold>
      <weakClassifiers>
        <_>
          <internalNodes>
            0 -1 13 4.8488285392522812e-04</internalNodes>
          <leafValues>
            1. -8.1818181276321411e-01</leafValues></_>
        <_>
          <internalNodes>
            0 -1 3 2.8266763547435403e-04</internalNodes>
          <leafValues>
            9.0152758359909058e-01 -1.</leafValues></_></weakClassifiers></_>
    <!-- stage 5 -->
    <_>
      <maxWeakCount>2</maxWeakCount>
      <stageThreshold>1.5391765534877777e-01</stageThreshold>
      <weakClassifiers>
        <_>
          <internalNodes>
            0 -1 6 -6.7981384927406907e-04</internalNodes>
          <leafValues>
            -8.1818181276321411e-01 1.</leafValues></_>
        <_>
          <internalNodes>
            0 -1 8 7.1294805966317654e-03</internalNodes>
          <leafValues>
            1. -8.4608232975006104e-01</leafValues></_></weakClassifiers></_>
    <!-- stage 6 -->
    <_>
      <maxWeakCount>2</maxWeakCount>
      <stageThreshold>1.4332616329193115e-01</stageThreshold>
      <weakClassifiers>
        <_>
          <internalNodes>
            0 -1 7 -1.1114260181784630e-02</internalNodes>
          <leafValues>
            1. -6.6666668653488159e-01</leafValues></_>
        <_>
          <internalNodes>
            0 -1 15 -1.1478901433292776e-04</internalNodes>
          <leafValues>
            -1. 8.0999284982681274e-01</leafValues></_></weakClassifiers></_>
    <!-- stage 7 -->
    <_>
      <maxWeakCount>1</maxWeakCount>
      <stageThreshold>8.9473682641983032e-01</stageThreshold>
      <weakClassifiers>
        <_>
          <internalNodes>
            0 -1 14 4.6561064664274454e-04</internalNodes>
          <leafValues>
            8.9473682641983032e-01 -1.</leafValues></_></weakClassifiers></_>
    <!-- stage 8 -->
    <_>
      <maxWeakCount>2</maxWeakCount>
      <stageThreshold>2.0000000298023224e-01</stageThreshold>
      <weakClassifiers>
        <_>
          <internalNodes>
            0 -1 0 1.1230580275878310e-04</internalNodes>
          <leafValues>
            8.8888889551162720e-01 -8.0000001192092896e-01</leafValues></_>
        <_>
          <internalNodes>
            0 -1 12 -3.2306910725310445e-04</internalNodes>
          <leafValues>
            -6.8005675077438354e-01 1.</leafValues></_></weakClassifiers></_>
    <!-- stage 9 -->
    <_>
      <maxWeakCount>1</maxWeakCount>
      <stageThreshold>8.9473682641983032e-01</stageThreshold>
      <weakClassifiers>
        <_>
          <internalNodes>
            0 -1 2 -2.6575950905680656e-02</internalNodes>
          <leafValues>
            -1. 8.9473682641983032e-01</leafValues></_></weakClassifiers></_></stages>
  <features>
    <_>
      <rects>
        <_>
          0 6 2 4 -1.</_>
        <_>
          0 6 1 2 2.</_>
        <_>
          1 8 1 2 2.</_></rects>
      <tilted>0</tilted></_>
    <_>
      <rects>
        <_>
          0 13 22 10 -1.</_>
        <_>
          0 18 22 5 2.</_></rects>
      <tilted>0</tilted></_>
    <_>
      <rects>
        <_>
          0 22 18 2 -1.</_>
        <_>
          9 22 9 2 2.</_></rects>
      <tilted>0</tilted></_>
    <_>
      <rects>
        <_>
          1 3 2 1 -1.</_>
        <_>
          2 3 1 1 2.</_></rects>
      <tilted>0</tilted></_>
    <_>
      <rects>
        <_>
          1 15 4 3 -1.</_>
        <_>
          1 16 4 1 3.</_></rects>
      <tilted>0</tilted></_>
    <_>
      <rects>
        <_>
          2 0 4 2 -1.</_>
        <_>
          2 0 2 1 2.</_>
        <_>
          4 1 2 1 2.</_></rects>
      <tilted>0</tilted></_>
    <_>
      <rects>
        <_>
          2 1 1 6 -1.</_>
        <_>
          2 3 1 2 3.</_></rects>
      <tilted>0</tilted></_>
    <_>
      <rects>
        <_>
          3 14 2 10 -1.</_>
        <_>
          3 19 2 5 2.</_></rects>
      <tilted>0</tilted></_>
    <_>
      <rects>
        <_>
          5 9 10 6 -1.</_>
        <_>
          5 9 5 3 2.</_>
        <_>
          10 12 5 3 2.</_></rects>
      <tilted>0</tilted></_>
    <_>
      <rects>
        <_>
          5 13 6 6 -1.</_>
        <_>
          5 16 6 3 2.</_></rects>
      <tilted>0</tilted></_>
    <_>
      <rects>
        <_>
          6 0 2 3 -1.</_>
        <_>
          6 1 2 1 3.</_></rects>
      <tilted>0</tilted></_>
    <_>
      <rects>
        <_>
          8 15 2 3 -1.</_>
        <_>
          8 16 2 1 3.</_></rects>
      <tilted>0</tilted></_>
    <_>
      <rects>
        <_>
          17 9 3 3 -1.</_>
        <_>
          18 9 1 3 3.</_></rects>
      <tilted>0</tilted></_>
    <_>
      <rects>
        <_>
          17 15 2 3 -1.</_>
        <_>
          17 16 2 1 3.</_></rects>
      <tilted>0</tilted></_>
    <_>
      <rects>
        <_>
          18 2 1 3 -1.</_>
        <_>
          18 3 1 1 3.</_></rects>
      <tilted>0</tilted></_>
    <_>
      <rects>
        <_>
          22 3 2 1 -1.</_>
        <_>
          23 3 1 1 2.</_></rects>
      <tilted>0</tilted></_></features></cascade>
</opencv_storage>
